  1.2778529e+000 -1.4142751e+000 -1.7764539e-002 -1.2221090e-001 -1.0582170e+000  2.2595956e-001 -5.9750468e-001 -1.6592585e+000 -1.6174718e+000  2.8775205e-001 -8.1138055e-001  2.2607461e+000
  8.5271054e-001  4.5879475e-001  1.7975386e+000  4.9819443e-001  8.3507734e-002 -1.3269004e-001 -2.4950338e-001  1.3090581e+000 -1.0927185e+000 -1.2624678e+000 -2.5263019e+000  1.1923017e+000
  1.8486887e+000  1.3063710e+000  1.2299787e+000 -9.9378756e-001  1.5952549e+000  6.7398800e-001 -1.2624157e+000 -9.8063032e-001 -1.9039040e-001 -5.6390804e-001 -7.1725322e-002  3.6924750e-001
  1.3271333e+000 -9.5459001e-001 -3.3656170e+000 -4.5509025e-001  2.3255394e-001  2.6035524e-001  2.5936540e-001  1.3936947e+000 -2.6651970e+000 -7.0348314e-001  4.6319174e-001  6.8690307e-001
  7.1413734e-001 -2.3512165e-001  4.0461622e-001  3.1498463e-002  5.2540825e-002  9.4039690e-001 -5.1050409e-001  2.7759171e+000  2.8114847e+000  5.8459022e-001  2.1253872e-001  1.7200992e+000
 -3.5780867e-001 -2.4775606e+000  1.6771212e+000 -5.4391283e-001 -1.2296289e+000 -7.3103886e-001 -1.0722878e+000 -1.8336613e+000 -1.0858679e+000  1.2978124e+000  1.8421702e+000  1.1240587e+000
  8.2437091e-001 -7.7905575e-001 -1.2468014e+000 -2.4688582e+000 -1.1964775e+000  7.2025740e-002  1.5427810e+000 -2.4688835e+000 -7.0681402e-001  1.3751557e+000 -2.6544930e-001  8.8056947e-001
  1.6123336e+000 -3.2936683e-001  1.1449859e-001  3.3847247e-001 -3.8755263e-001 -3.1345804e-001 -1.1770420e+000  1.3274651e-001 -8.6703010e-001  9.0310787e-001 -1.2006474e+000  1.6389117e+000
 -3.1478063e-001  2.6200561e+000  1.1672494e+000 -5.3433706e-001  3.6224609e-001  1.3253885e+000 -1.0222396e+000  1.2527554e-001 -2.7516693e+000  2.3654084e-001  6.9107421e-001  6.1368753e-001
 -1.3866821e+000 -6.0376322e-001 -1.3010446e-001 -3.6086077e-001  8.3580324e-001  1.1481261e+000 -1.8809839e+000 -1.2161428e+000 -1.7073404e-002  9.4844968e-001 -1.6273731e+000 -3.8073698e-001
