  4.4941287e-001 -3.8334825e-001 -5.3245722e-001  2.7919333e-002 -5.0440828e-001 -9.6768563e-001 -1.3421571e+000  2.9581476e-001 -1.4223201e+000 -2.3497529e-001
 -7.3259400e-001 -1.2002806e+000 -2.9843058e-001  7.2048761e-001 -8.5005829e-001 -8.2328253e-001 -4.5855931e-001 -1.5935343e+000 -1.1893503e+000 -1.0137634e+000
  1.2170744e+000  1.1928713e+000  8.4398097e-001 -1.3658761e-001  1.0420539e+000  9.6844761e-001  6.8661877e-001  4.1527905e-002 -3.9046786e-001 -2.6268682e-001
 -4.4220972e-001 -3.6756189e-001  9.3235934e-001 -1.6435875e-001  7.3588686e-001  2.9645555e-001  3.2182038e-001 -8.5618253e-001  1.7735423e-001  1.3213786e-001
 -2.7771763e-001 -9.2549293e-001 -1.2822176e+000 -4.1886010e-001 -9.5268890e-001  1.0157354e+000  3.5072963e-001  1.4561028e+000 -4.8057992e-002  6.7783222e-001
  3.1521094e-001  3.3516246e-001 -7.0726734e-001  8.5856877e-001  2.1175014e-001 -4.8270524e-001  2.6238215e-001 -7.1893114e-001  6.2480364e-001 -8.4223595e-001
  8.7206699e-001  1.0961601e+000 -8.6671220e-002  1.3576117e+000  3.6874954e-001  3.7007246e-001  7.6934687e-001 -3.4194146e-001 -5.1330981e-001 -8.6539468e-001
  9.1260231e-001  1.3759488e+000  8.6703434e-001  1.4443479e-001  1.0178295e+000 -4.4582742e-001  4.3426609e-001  1.2110483e+000  5.2724442e-001 -4.3678893e-001
 -8.4632723e-001 -2.0444956e+000 -7.2207659e-001 -1.8731818e+000 -7.2193567e-001 -1.6784760e+000 -1.3949498e+000 -1.0064855e+000 -2.2394576e-001 -4.8975202e-001
  5.0202560e-002  1.2689391e+000  1.0569261e+000  1.3213339e+000  6.3581107e-001 -1.1312428e+000  1.9325745e-001 -4.1524356e-001 -1.3726994e+000 -1.2974339e+000
  6.4413715e-001 -2.8213748e-002 -3.8230216e-001  4.6533413e-001 -1.8770835e-001 -1.0084213e+000 -1.2192117e+000 -1.6492319e-001 -1.1853636e+000 -8.3074192e-001
 -8.2118227e-001  4.6593193e-001  9.4381171e-001 -3.3572495e-001  3.3060192e-002  4.0218551e-001 -8.7681547e-002  6.1647533e-001 -6.6618590e-001 -2.4402441e-001
